%YAML:1.0
opencv_ml_svm:
   svmType: EPS_SVR
   kernel:
      type: LINEAR
   C: 1.0000000000000000e-02
   p: 1.0000000000000001e-01
   term_criteria: { iterations:100 }
   var_count: 576
   sv_total: 1
   support_vectors:
      - [ -5.78528088e-05, -1.27028651e-03, -3.63986637e-03,
          -9.04077722e-04, -2.06266777e-05, 3.34270997e-04,
          4.31482680e-04, 2.35284748e-03, 3.33617046e-03, 1.27597363e-04,
          -4.47017519e-04, -1.04978587e-03, -1.89608335e-03,
          -1.21724338e-03, 2.01753783e-03, 2.35229870e-03,
          3.57427960e-03, 3.12163192e-03, 3.07169481e-04,
          -2.34699855e-03, -2.33750069e-03, -2.04462931e-03,
          -1.26556843e-03, 6.87986379e-04, 1.78307830e-03,
          4.14722972e-03, 2.65670451e-03, 1.66057609e-03, 1.10715372e-03,
          -1.76354463e-03, -1.93917670e-03, -2.06085551e-03,
          1.39943860e-03, 1.04765830e-04, 3.60108982e-03, 2.21932679e-03,
          -6.88166998e-04, -1.79424277e-03, -2.27175700e-03,
          -2.73880875e-03, -1.32043962e-03, 2.65527237e-03,
          2.77364021e-03, 2.10437947e-03, 1.77920621e-03, 1.47909310e-03,
          1.78636867e-03, 8.73050536e-04, -1.63932214e-03,
          -6.70316396e-04, 1.94738060e-03, 1.76459050e-03,
          1.09457236e-03, 1.35629962e-03, -2.48132746e-05,
          8.88942013e-05, -1.70345732e-03, -1.52033835e-03,
          -1.91629271e-03, 1.07102876e-03, 2.00898829e-03,
          2.22968333e-03, 1.80344982e-03, 3.88942455e-04,
          -6.18810358e-04, -1.07856398e-03, -7.27650069e-04,
          -1.40313455e-03, 6.36899495e-04, 4.19727201e-03,
          1.63619372e-03, 1.10010884e-03, 4.45892336e-04, 2.09639873e-03,
          3.05531383e-03, -1.05505879e-03, -9.15333861e-04,
          -5.92365279e-04, -9.66459105e-04, -7.88372185e-04,
          -3.87983368e-04, 9.86678991e-04, 9.68228618e-04,
          3.16263433e-03, 2.08663289e-03, -6.45474240e-04,
          -1.30362529e-03, -1.12521613e-03, -1.54788967e-03,
          -8.48620781e-04, -1.20035773e-04, 1.25501701e-03,
          1.83531980e-03, 4.67083330e-04, -4.76736226e-04,
          -3.04855756e-04, 2.13670754e-03, -7.32796470e-05,
          4.74869412e-05, -2.99049396e-04, -2.43658651e-04,
          1.12314941e-03, -5.53753707e-05, -3.03018419e-03,
          -1.53064763e-03, -1.01508352e-03, -7.33573281e-04,
          -1.29320670e-05, -1.71161853e-04, -2.85197841e-03,
          -3.22127296e-03, -5.24808536e-04, -1.37073128e-03,
          -1.72552152e-03, -1.08278298e-03, -8.34940351e-04,
          2.32625986e-04, 1.23820675e-03, 1.30012352e-03, 1.70349306e-03,
          -3.59833147e-03, -9.22505278e-04, -1.86549674e-03,
          -1.41939544e-03, -1.57151115e-03, 6.15590252e-05,
          -1.50961132e-04, 7.45187863e-04, 4.81628207e-03,
          -3.25467205e-04, -2.66948529e-03, -1.71692425e-03,
          -5.40084438e-04, 1.01236789e-03, 1.95449777e-03,
          3.37081612e-04, 6.66830456e-03, 4.89112549e-03,
          -2.28886050e-03, -6.97428302e-04, -1.68075552e-03,
          -7.39794748e-04, 9.47793073e-04, 1.06311508e-03,
          -5.92295080e-04, -1.16173143e-03, -3.74091236e-04,
          -2.56438903e-03, -3.34259891e-03, -1.51124480e-03,
          -1.95522502e-04, 1.48281839e-03, 1.80228730e-04,
          -8.05393851e-04, 1.64250552e-03, 1.36667246e-03,
          6.89717999e-05, -1.09819310e-04, -4.38910414e-04,
          -8.56418861e-04, 1.67781999e-03, 1.65747711e-03,
          1.22840784e-03, 9.71660134e-04, 1.71830435e-03, 3.13498749e-04,
          -3.61993152e-04, -1.04935386e-03, 1.43662328e-03,
          2.25299434e-03, 1.91359234e-03, 2.53737293e-04, 2.88012531e-03,
          2.87726126e-03, 5.36052976e-04, 1.52810838e-03, 1.74578745e-04,
          1.99768366e-03, 1.50702999e-03, 4.81851399e-04, 4.74414664e-05,
          -3.72140988e-04, -2.18350720e-03, 4.01561207e-04,
          4.92233958e-04, 9.07202848e-05, 4.81083232e-04, 7.98550143e-04,
          9.85201215e-04, 2.47437594e-04, -1.44994515e-03,
          -1.56804780e-03, 6.81147270e-04, -9.99703887e-04,
          3.03426699e-04, 2.87605636e-03, 5.72213030e-04, 1.19145692e-03,
          -2.03220872e-04, 4.66084137e-04, 2.20832578e-03,
          1.45180221e-03, 1.19495601e-03, 8.59239895e-04, 7.18738826e-04,
          1.58190931e-04, 5.50251934e-05, 1.29807368e-03,
          -8.28768534e-04, 5.47918666e-04, 1.02509907e-03,
          1.63508113e-03, 5.47486183e-04, -3.30266397e-04,
          -8.23759416e-04, 3.05193826e-04, 5.19796973e-04,
          8.38996493e-05, 7.74312590e-04, 2.26596298e-04,
          -1.27410667e-03, 8.60716624e-04, 4.35427949e-03,
          2.33065151e-03, 1.55764725e-03, 9.73627728e-04, 4.34869435e-04,
          4.99205198e-04, 1.31395250e-03, -1.17343164e-03,
          -9.44815867e-04, 1.98267866e-03, 3.30160861e-03,
          3.31338611e-03, 8.88150709e-04, -1.73493498e-03,
          -1.70815527e-03, -1.22770236e-03, 6.71721296e-04,
          1.11431023e-03, 1.50379981e-03, 1.18072967e-04, 1.19859492e-03,
          -5.40586247e-04, -8.95795296e-04, -4.12317197e-04,
          3.38863611e-04, 7.21900142e-04, 6.67701184e-04, 2.09670444e-03,
          1.84464979e-03, 1.23832689e-03, 1.33532495e-03, 2.28802906e-03,
          2.67893262e-03, 2.16649519e-03, -1.14020346e-04,
          -2.40943674e-03, 1.21214376e-04, 1.71773566e-03,
          2.66477442e-03, 7.71756517e-04, 4.29596379e-03, 2.07621092e-03,
          6.00638567e-04, -5.84302412e-04, 8.21174181e-05,
          1.62321987e-04, 6.17581187e-04, 3.71298811e-04, 3.25745874e-04,
          4.97815839e-04, -9.93282185e-04, 1.45803415e-03,
          9.17700469e-04, -3.29420669e-04, 3.21553467e-04,
          7.35599082e-04, 7.89954385e-04, -6.42742496e-04,
          1.01120351e-03, 3.20785563e-04, 1.75505562e-03, 1.45947526e-03,
          1.87364407e-03, -4.41840748e-05, -1.36296044e-03,
          -1.43179588e-03, 1.08866312e-03, 2.41938324e-04,
          4.59737610e-04, -1.59425563e-05, 1.42580934e-03,
          -1.20558764e-03, 4.87377256e-04, 1.30214423e-04,
          7.37371389e-04, 8.33199301e-04, 5.10914135e-04, 2.43053189e-03,
          -5.32274193e-04, 4.15567029e-03, -6.73745177e-04,
          2.56993953e-04, -6.11964148e-04, -6.60254387e-04,
          2.04691169e-04, 2.16054887e-05, 1.08034490e-03, 8.49587086e-04,
          3.03200330e-04, 1.20837917e-03, 3.49273701e-04,
          -7.43587269e-04, -7.50437903e-04, 2.09188132e-04,
          2.15184249e-04, 3.86552012e-04, -2.81123241e-04,
          2.30022962e-03, -2.62227404e-04, -1.63761224e-03,
          -2.44342233e-03, -9.32049414e-04, 1.36850763e-03,
          1.60345656e-03, 1.75151904e-03, 1.87836715e-03, 3.01156309e-03,
          -1.73064691e-05, 1.23392837e-03, 5.38838794e-04,
          1.24772231e-03, 1.74520130e-04, -1.35049911e-03,
          6.13716606e-04, -3.27845803e-04, 8.44584953e-04,
          -4.96935972e-04, -1.22586801e-03, -1.03302102e-03,
          1.01228349e-03, 3.39097081e-04, 1.68548804e-03, 2.10044044e-03,
          6.02062559e-04, 1.18954526e-03, -5.18258894e-04,
          -1.26075363e-04, 2.44579889e-04, 8.15107371e-04,
          -1.42918096e-03, -2.83241947e-03, -1.58050063e-03,
          -2.53302464e-03, -3.10162222e-03, -1.66203291e-03,
          -1.12928147e-03, -5.53552702e-04, -7.52036576e-05,
          5.00000722e-04, -2.05382984e-03, -5.28099423e-04,
          -9.41065780e-04, 1.85612924e-04, 7.92495921e-05,
          -1.12755864e-03, -5.97156992e-04, 1.21256558e-03,
          -3.34929908e-04, -5.09250385e-04, 2.83407193e-04,
          1.31917093e-03, 5.79230080e-04, 1.30631973e-03,
          -3.74904885e-05, 1.08810468e-03, 1.48436718e-03,
          2.15600623e-04, -3.59366694e-03, -3.23984213e-03,
          6.54681498e-05, -1.83935463e-03, -5.07383025e-04,
          -1.52172556e-03, 1.57040672e-03, 7.28325627e-04,
          1.10434962e-03, 1.20574655e-03, 1.40720245e-03, 1.66553329e-03,
          -2.23397953e-03, 1.18116802e-03, -4.01191006e-04,
          2.50781141e-03, 1.41625153e-03, -7.74483953e-04,
          9.98621224e-04, 5.70759817e-04, 3.48750531e-04, 7.99743633e-04,
          1.07344578e-03, -3.40536499e-04, -1.48359075e-04,
          -7.44673598e-04, -3.98514443e-04, -4.40547126e-04,
          -1.48347011e-04, 1.77412131e-03, 7.84107309e-04,
          7.72569503e-04, -3.31834774e-04, -1.76644907e-03,
          -1.82604440e-03, 1.05537195e-03, 3.04504368e-03,
          1.05412200e-03, -2.28651552e-04, -2.70824600e-03,
          1.18204637e-03, -4.00078716e-04, -8.25466472e-04,
          -2.05390330e-04, 9.73329588e-04, 2.36057141e-03,
          1.62972475e-03, -8.76981532e-04, -9.18627193e-04,
          8.74304445e-04, -3.44366359e-04, -1.76494848e-03,
          -1.66099111e-03, -8.91588978e-04, 1.47296721e-03,
          1.75966509e-03, 2.16187164e-03, 2.91286036e-04, 2.07712338e-03,
          9.42866958e-04, -9.36223296e-05, -5.75129350e-04,
          -1.37734390e-03, 2.23374367e-03, 1.11029996e-03,
          2.23596435e-04, 1.36349280e-03, 4.49549361e-06,
          -1.22859026e-03, -1.91430282e-03, -1.18255417e-03,
          -2.23636441e-03, 2.50347634e-03, 2.35408591e-03,
          1.41881790e-03, 2.04564608e-03, -1.09895067e-04,
          -3.82233411e-04, -5.74203325e-04, -1.71985745e-03,
          -1.37606217e-03, 5.17076463e-04, 1.00605888e-03,
          -1.65994372e-03, 5.94782061e-04, -1.80492440e-04,
          -7.04446109e-04, -7.02864374e-04, -1.06102729e-03,
          -7.41692085e-04, 1.60292955e-03, 1.53007545e-03,
          -1.97344040e-03, 5.62396192e-04, -2.71576660e-04,
          -1.18226476e-03, -5.14404615e-04, 4.24805097e-04,
          -2.37373519e-04, -1.92604761e-03, -7.32255168e-04,
          -2.26025260e-03, -2.21829789e-04, -1.35699660e-03,
          -7.84835138e-04, 1.17338914e-03, 1.28357951e-03,
          9.49572073e-04, 2.88649113e-04, 1.24248012e-03,
          -2.03365088e-03, 1.63993321e-03, 1.37562864e-04,
          -8.87416070e-04, 3.85366729e-04, 5.59031963e-04,
          1.59706187e-03, 6.67730870e-04, 2.08314019e-03,
          -8.13609746e-04, 9.50055837e-04, -1.24702207e-03,
          -1.00272230e-03, -3.19135608e-04, 7.36948336e-04,
          4.13545611e-04, -2.82780803e-03, -6.84311148e-04,
          1.80475952e-04, -3.13528231e-04, -1.78349321e-03,
          -1.03584910e-03, 9.15495330e-04, 8.44031223e-04,
          4.85314988e-04, -1.20571174e-03, 5.11239632e-04,
          3.49390350e-04, -1.61286490e-03, 2.32943246e-04,
          1.25095990e-04, 1.89810852e-03, -7.26187136e-05,
          1.39589957e-03, 3.69896676e-04, 1.52597448e-03, 3.11199779e-04,
          -4.97910834e-04, -1.30140421e-03, -8.63699126e-04,
          -9.19418584e-04, -9.22806037e-04, -4.61011077e-04,
          4.43088997e-04, 2.54520541e-03, 5.73554280e-05,
          -4.86809004e-04, -7.51139072e-04, -5.67986863e-04,
          5.16541884e-04, -2.18213580e-04, 7.90340186e-04,
          1.48432620e-03, 1.21288700e-03, 6.40358849e-05,
          -1.15061132e-03, 1.28686649e-03, 6.52041461e-04,
          8.57710605e-04, 5.63342415e-04, 1.33325253e-03, 2.77947448e-03,
          1.44720683e-03, 5.12243307e-04, -5.24658593e-04,
          2.58053187e-04, -6.71603175e-06, -7.90121267e-04,
          -8.67318013e-04, -1.20803350e-04, -1.05114515e-04,
          7.03763915e-04, -1.44947995e-03, 4.54472582e-04,
          -8.05174466e-04, -5.76480234e-04, 1.02714309e-03,
          1.34680700e-03, -1.76274450e-03, -7.67624995e-04,
          -1.10675360e-03, -1.58674316e-03, -2.05377955e-03,
          -8.73612356e-04, -1.69683582e-04, 7.67587117e-05,
          -1.05131511e-03 ]
   decision_functions:
      -
         sv_count: 1
         rho: 9.1352338562915281e-01
         alpha: [ 1. ]
