%YAML:1.0
opencv_ml_svm:
   svmType: EPS_SVR
   kernel:
      type: LINEAR
   C: 1.0000000000000000e-02
   p: 1.0000000000000001e-01
   term_criteria: { iterations:100 }
   var_count: 576
   sv_total: 1
   support_vectors:
      - [ -2.58300509e-02, -2.49401070e-02, 5.01110568e-04,
          6.95845578e-03, -5.49610518e-03, 1.08615318e-02,
          1.09460605e-02, -1.12659356e-03, -9.48680751e-03,
          -1.15261069e-02, 8.23821872e-03, 3.04411463e-02,
          6.47168932e-03, -2.59029269e-02, -2.20318371e-03,
          4.89840470e-03, -6.70163985e-03, -1.82273369e-02,
          -2.52387822e-02, -2.13434827e-02, 9.00343712e-03,
          2.61277221e-02, 2.32730638e-02, 7.73482723e-03, 7.21077481e-03,
          -5.44116553e-03, -6.17043767e-03, -1.28466962e-02,
          3.05253323e-02, 4.79461364e-02, 4.37054150e-02, 8.07194412e-03,
          1.66799538e-02, 1.79703627e-03, -3.22848675e-03,
          -5.06999204e-03, -1.15003204e-02, 5.13091916e-03,
          1.79093890e-02, -3.54433036e-03, -4.37559970e-02,
          4.28624963e-03, 3.84505559e-03, -4.83306171e-03,
          -2.64902171e-02, -6.72404794e-03, 2.10343096e-02,
          1.74605120e-02, -1.27762435e-02, -2.43210867e-02,
          -3.28005594e-03, 3.28366831e-03, 1.04060746e-03,
          -1.99917834e-02, -1.11432141e-02, 3.41509990e-02,
          5.32228388e-02, 5.48216701e-02, 2.56656227e-03, 1.23594776e-02,
          1.07455242e-03, -3.92271020e-03, -1.57310590e-02,
          -5.93498407e-04, 5.49020395e-02, 5.18810451e-02,
          4.35319096e-02, 1.45625854e-02, 2.63701100e-02, 5.14249038e-03,
          6.62747212e-03, -1.61270481e-02, 5.96436579e-03,
          1.72574446e-02, 1.84736098e-03, -1.98523868e-02,
          -1.59510877e-02, 1.02602961e-02, 8.36374890e-03,
          1.01105580e-02, -2.19005183e-03, -5.73445112e-03,
          -6.65955152e-03, -2.71326862e-02, -2.53908951e-02,
          -2.00018864e-02, 2.08725110e-02, 5.90090640e-03,
          1.05681447e-02, 7.13956775e-03, 3.98826599e-03, 3.09795104e-02,
          1.27145266e-02, 3.08052488e-02, 1.23860855e-02, 4.67967764e-02,
          1.73271522e-02, 1.75816193e-02, 3.88601795e-03,
          -6.64189178e-03, 8.89239964e-05, -1.25251524e-03,
          1.10892849e-02, 1.05132852e-02, 4.80124019e-02, 7.14711379e-03,
          1.16498144e-02, 4.59960569e-03, 2.18243189e-02,
          -1.90525048e-03, -1.22166891e-02, -2.42396314e-02,
          -8.67322180e-03, 4.17816378e-02, 2.15619300e-02,
          2.62422748e-02, 3.79880443e-02, -2.80861580e-03,
          -9.96760558e-03, -4.07149829e-03, -3.38181630e-02,
          -4.89301495e-02, 4.69481898e-03, 1.70227550e-02,
          2.16014348e-02, 1.57425851e-02, 3.51336249e-03,
          -3.51219816e-04, 3.14454385e-03, 2.30117571e-02,
          2.31766179e-02, 5.50449193e-02, 9.93925799e-03, 2.58464296e-03,
          4.66265623e-03, -1.88249219e-02, -1.56956166e-02,
          -3.66985425e-03, -8.11019074e-03, -2.01743003e-02,
          4.90473118e-03, -2.02707225e-03, -1.56376325e-02,
          -1.42745627e-02, -2.30982825e-02, -3.66940312e-02,
          -3.01025268e-02, 1.63221452e-02, 2.66501065e-02,
          6.36870973e-03, 3.23211681e-03, -8.48147459e-03,
          -2.19749045e-02, -2.46341117e-02, -2.35266984e-03,
          -1.15706492e-02, 4.25966904e-02, 3.85594554e-02,
          4.59471438e-03, -1.75720255e-03, -1.03492001e-02,
          -1.65711753e-02, -2.18711365e-02, -2.08216738e-02,
          -2.65299231e-02, -3.69004253e-03, 2.51433756e-02,
          -2.06403970e-03, -1.07974047e-02, -6.97037857e-03,
          -2.64291689e-02, -1.61425024e-02, -1.24376556e-02,
          -2.76470166e-02, 3.62272896e-02, 3.34800147e-02,
          4.94542252e-03, -2.44325828e-02, -8.82788468e-03,
          -1.37775932e-02, -1.70949306e-02, 9.29192547e-03,
          1.34452768e-02, 4.48692776e-02, 9.92955733e-03,
          -4.55036107e-03, -6.03393000e-03, -8.66671186e-03,
          -1.42687177e-02, -1.02988323e-02, 1.41109880e-02,
          1.28635578e-02, 3.38348150e-02, 2.00653784e-02, 2.97210459e-03,
          -1.11851394e-02, -1.31439688e-02, -2.06636898e-02,
          -1.05966823e-02, 2.01274757e-03, -6.87421532e-03,
          5.26478514e-02, 2.48462148e-02, -9.48353671e-04,
          -1.17973648e-02, -5.81769226e-03, -1.42413722e-02,
          -1.84951890e-02, 3.08051985e-03, -6.23050425e-03,
          3.81175876e-02, 2.41949633e-02, 1.07158562e-02,
          -1.20738591e-03, -1.65844429e-02, -2.22228784e-02,
          -7.31461029e-03, 3.77568576e-05, -1.21620838e-02,
          1.82349700e-02, 2.01078579e-02, 2.65735574e-02,
          -3.05399345e-03, -2.89842486e-03, -1.03131691e-02,
          -1.03953844e-02, -9.16478690e-03, -1.17262043e-02,
          5.47266565e-03, 9.55796428e-03, 2.12365277e-02,
          -1.19537013e-02, -3.83139332e-03, -1.44154374e-02,
          -5.78828622e-03, 2.73578288e-03, -1.04979454e-02,
          3.82658206e-02, 2.30186135e-02, 2.52305735e-02, 3.37379373e-04,
          -5.87975560e-03, -1.01706348e-02, -1.47780329e-02,
          -1.47995539e-02, -2.68374402e-02, 2.00423598e-02,
          1.71124451e-02, 1.99911054e-02, -5.07971691e-03,
          -6.37482270e-04, -1.75238904e-02, -8.83247890e-03,
          -8.72072577e-03, -8.75179283e-03, 1.51948268e-02,
          4.40994054e-02, 2.41762679e-02, -1.27669945e-02,
          -7.35603319e-03, -1.35473749e-02, -2.09880080e-02,
          -1.99854206e-02, -2.01399736e-02, -1.13714943e-02,
          -8.08286108e-03, -1.24878017e-02, -2.04652864e-02,
          -2.07698345e-02, -2.06848141e-02, -1.63638350e-02,
          -1.40962824e-02, -2.13136505e-02, 4.05603684e-02,
          4.57632169e-02, 2.00639460e-02, -7.14302482e-03,
          -5.08247595e-03, -2.12506447e-02, -1.30632417e-02,
          -1.58298984e-02, -3.49128954e-02, 1.56910537e-04,
          -7.45416433e-03, -1.49083044e-02, -1.71002410e-02,
          -1.65959802e-02, -2.41299737e-02, -1.01253316e-02,
          -1.10271163e-02, -3.40216979e-02, -2.14545131e-02,
          1.10148834e-02, 1.52946562e-02, -1.60837767e-03,
          1.87518471e-03, -1.16965184e-02, 5.96958958e-03,
          1.11100832e-02, -1.09009417e-02, 1.98516455e-02,
          3.87888812e-02, 2.56884564e-02, 1.71190861e-03, 1.26175424e-02,
          8.20254255e-03, -7.03794230e-03, -2.64420011e-03,
          -3.21778692e-02, -4.38607633e-02, -1.35329757e-02,
          2.48155394e-03, 4.34380869e-04, -4.71551018e-03,
          -1.80507917e-02, 1.89873111e-02, 3.99886928e-02,
          9.29709524e-03, 7.76350359e-03, 3.23453881e-02, 3.57441641e-02,
          3.32614891e-02, 2.70831194e-02, 1.31629054e-02, 9.56978463e-03,
          9.97513998e-03, -7.86171481e-03, 6.88212970e-03,
          1.28837619e-02, 3.50128772e-04, 2.75774696e-03, 1.06891766e-02,
          2.63772579e-03, 9.69130639e-03, 1.24883782e-02,
          -3.78689240e-03, 1.86171755e-02, 9.61897895e-03,
          3.80137004e-03, 8.40020739e-03, 5.63615747e-03, 3.59659502e-03,
          2.83005517e-02, 3.24462168e-02, 2.05488410e-02, 3.38546559e-03,
          -3.32136219e-03, -1.86597463e-03, 2.01284550e-02,
          3.14716175e-02, 1.93010271e-02, 3.86562794e-02, 2.97057219e-02,
          3.06287780e-02, 2.09047068e-02, -1.56112649e-02,
          -1.37749210e-03, 1.81477778e-02, 2.41412316e-02,
          2.31143739e-02, 2.22274382e-02, 1.29784029e-02, 5.72097255e-03,
          2.62208134e-02, 1.28429448e-02, 2.17847843e-02, 1.85841974e-02,
          1.53214866e-02, 1.30348895e-02, -1.72434449e-02,
          -1.15701472e-02, -1.85559243e-02, 2.65210085e-02,
          1.25981327e-02, 3.16063710e-03, 8.15488398e-03, 1.56054227e-03,
          -2.15556286e-02, 3.79098095e-02, 3.22498046e-02,
          3.61030772e-02, 2.67956052e-02, 3.61713814e-03, 1.61816496e-02,
          3.60574387e-02, 2.20228788e-02, 1.81227755e-02,
          -5.41274762e-03, -5.34205418e-03, 3.83980502e-03,
          2.22542547e-02, -2.13804585e-03, 1.05091454e-02,
          2.40277089e-02, 2.68361322e-03, -1.62861682e-02,
          -3.39661576e-02, -1.82600562e-02, -2.11218260e-02,
          5.26739918e-02, 4.29255553e-02, 1.33765182e-02, 5.03927097e-03,
          -7.72703299e-03, -2.76368074e-02, -2.58128457e-02,
          -1.61888190e-02, -3.82240750e-02, 3.72382579e-03,
          3.38459085e-03, -5.61182201e-03, -6.55726297e-03,
          -1.08363498e-02, -2.18187645e-02, 4.33386333e-04,
          -2.16752081e-03, 1.14438022e-02, 4.47498187e-02,
          2.36691516e-02, 1.80540048e-02, 1.78238582e-02, 9.61209554e-03,
          -5.97394118e-03, -1.31484531e-02, -1.89120043e-02,
          -1.97994448e-02, 1.15974918e-02, 4.66456264e-03,
          -6.45766966e-03, 3.69389396e-04, 1.46660057e-03,
          -9.15027689e-03, 4.85530170e-03, 1.64268743e-02,
          -1.58428494e-02, -3.96396853e-02, -2.00473070e-02,
          -5.93964104e-03, 4.10021190e-03, -2.54290365e-03,
          -1.72298830e-02, 4.31830846e-02, 8.48821625e-02,
          4.27029990e-02, 3.68255004e-02, 3.81438322e-02, 2.85509117e-02,
          4.29563373e-02, 3.50703672e-02, 2.89245434e-02,
          -4.70602438e-02, 9.42165498e-03, -1.67005286e-02,
          -3.44137512e-02, -4.50959243e-02, -3.72814313e-02,
          -3.19112167e-02, -4.08583246e-02, -5.89571111e-02,
          -1.50219928e-02, 5.04956320e-02, 2.31551155e-02,
          1.20418416e-02, -1.17791956e-02, -1.16127525e-02,
          -1.80188958e-02, -2.94660721e-02, -3.76213640e-02,
          3.79401632e-02, 5.67227565e-02, 3.85912396e-02, 2.49356274e-02,
          2.55412818e-03, 9.69725603e-04, 2.58370843e-02, 2.94157211e-02,
          2.34349072e-02, 2.88039837e-02, 4.10942957e-02, 4.08233106e-02,
          3.93207893e-02, 1.93392322e-03, 8.77511501e-03, 2.29997877e-02,
          2.30266787e-02, 1.89596228e-02, -1.64987184e-02,
          1.90376323e-02, -1.10841915e-02, -1.74082723e-02,
          -1.87678933e-02, -9.75610130e-03, -1.11551173e-02,
          -2.03046445e-02, -2.49844026e-02, -1.46753481e-02,
          -1.62765721e-03, 3.55204102e-03, -4.65033483e-03,
          -3.76418605e-03, -5.99351618e-03, -5.88584784e-03,
          -1.18430089e-02, -1.18733486e-02, 3.68810408e-02,
          4.64974009e-02, 5.16190641e-02, 3.20405625e-02, 1.05424412e-03,
          9.33356490e-03, 2.79667210e-02, 1.71259083e-02, 9.45305638e-03,
          1.58019196e-02, 1.34320604e-02, 2.81466693e-02, 1.91649627e-02,
          1.70358908e-04, 2.37460132e-03, 1.56497136e-02, 2.68747914e-04,
          -2.98001803e-03, -7.70049868e-03, 4.04940778e-03,
          1.72230918e-02, -1.43185828e-03, -1.64392870e-02,
          -1.01616057e-02, 4.95165400e-03, -1.67221267e-04,
          3.02002911e-04, -7.95761647e-04, 1.41035803e-02,
          1.14032272e-02, -4.99461032e-03, -2.49669012e-02,
          -1.50768207e-02, 4.50926274e-03, -2.61594146e-03,
          1.50468829e-03, 2.80731656e-02, 7.74100702e-03, 3.02888788e-02,
          2.33479775e-02, 1.84919976e-03, 1.27868867e-02, 2.91159116e-02,
          2.17441544e-02, 3.01351324e-02, -4.44789650e-03,
          -1.65487956e-02, -3.52612813e-04, 7.00384844e-03,
          -7.51242833e-03, -6.84041064e-03, 4.68664384e-03,
          -3.70912394e-03, 3.35868128e-04, 1.36843359e-03,
          2.38116011e-02, 2.22780034e-02, -8.53018649e-03,
          -3.66702564e-02, -1.64559335e-02, 2.81405239e-03,
          -7.39132660e-03, 8.03335756e-03, -1.20270951e-02,
          -5.51211042e-03, 9.37799178e-03, -2.56260633e-02,
          -2.44544856e-02, -2.10414957e-02, -1.60860848e-02,
          -3.01368255e-02, -1.68057512e-02 ]
   decision_functions:
      -
         sv_count: 1
         rho: 6.3742405414581349e-01
         alpha: [ 1. ]
