%YAML:1.0
opencv_ml_svm:
   svmType: EPS_SVR
   kernel:
      type: LINEAR
   C: 1.0000000000000000e-02
   p: 1.0000000000000001e-01
   term_criteria: { iterations:100 }
   var_count: 576
   sv_total: 1
   support_vectors:
      - [ -2.01629009e-03, 1.06369928e-02, 1.59920845e-02,
          -4.53289133e-03, -1.50850760e-02, -1.42648129e-03,
          -3.12425056e-03, -6.45218324e-03, -5.19908499e-03,
          8.51257518e-03, 1.16234059e-02, 5.88178076e-03,
          -8.78183730e-03, -8.06037150e-03, -1.24062574e-03,
          -3.95927345e-03, -1.80468080e-03, 7.16612954e-03,
          7.23030511e-03, 2.26600096e-02, 1.29444171e-02,
          -6.12687832e-03, -2.12711785e-02, -5.49555663e-03,
          -3.55480332e-03, -8.19184911e-03, -5.43445256e-03,
          5.68910362e-03, 6.15308294e-03, 6.92209695e-03,
          -1.39037445e-02, -9.98234842e-03, -4.78912191e-03,
          -7.86251738e-04, -3.62859434e-03, -1.03410019e-03,
          2.38372087e-02, 1.43832117e-02, 1.68540003e-03,
          -7.12516764e-03, 1.51903415e-03, -3.52025498e-03,
          -4.13249433e-03, 2.40636669e-04, 2.46912185e-02,
          1.97733361e-02, 3.66609357e-03, -6.61764015e-03,
          -9.47627146e-03, -1.40340310e-02, -4.39287070e-03,
          1.62479829e-03, -1.79003284e-03, 1.72880478e-02,
          8.71840212e-03, 1.28134247e-03, -5.57068503e-03,
          -1.64502114e-02, -2.10915296e-03, -6.78002415e-03,
          -5.63527271e-03, -3.17252404e-03, 6.64021727e-03,
          6.17187237e-03, -6.13956293e-03, -1.60108022e-02,
          -1.70057304e-02, -9.27135069e-03, -8.49856343e-03,
          -3.83499428e-03, -4.11636708e-03, 4.53968905e-03,
          1.36399632e-02, -3.52702546e-03, -1.04046781e-02,
          -3.43814003e-03, -1.80171169e-02, -4.11492214e-03,
          4.55412036e-03, -1.20087806e-03, 1.54820625e-02,
          1.44912498e-02, 5.88270091e-03, 6.82077324e-03, 4.12906939e-03,
          4.18404210e-03, 1.15908880e-03, 4.44875658e-03, 3.83081543e-03,
          1.20689217e-02, 2.16811406e-03, -3.79870017e-03,
          -9.10517760e-03, -9.31352098e-03, -7.16202753e-03,
          -1.11622838e-02, 3.18895851e-04, -3.40603234e-04,
          1.81680924e-04, 6.75192522e-03, -6.50999893e-04,
          -2.87292409e-03, 1.07384862e-04, 5.48606459e-03,
          1.80561177e-03, 7.57465896e-04, 1.48092862e-03, 5.61844464e-03,
          4.37980564e-03, 1.53779835e-02, 1.70587264e-02, 2.62347923e-04,
          6.02329196e-03, -8.66547879e-03, -7.52252340e-03,
          -2.62675295e-03, -1.68227416e-03, 2.56561441e-03,
          6.52476959e-03, 2.36063893e-03, -8.26131646e-03,
          -2.92346207e-03, -5.79417730e-03, 1.41805111e-04,
          6.81876019e-03, 4.07697679e-03, -4.45504067e-03,
          1.32189633e-03, -2.06749118e-03, -1.57730677e-03,
          1.39367403e-02, 4.97230981e-03, -1.72039366e-03,
          1.74644240e-03, -1.61414256e-03, -8.77012406e-03,
          -6.19982602e-03, -7.87347928e-03, 1.25050417e-03,
          9.74308420e-03, 6.11304771e-03, 7.08087999e-03, 5.70957037e-03,
          -7.06424750e-03, 1.09275868e-02, 2.29617823e-02,
          3.34069580e-02, 9.07887984e-03, -8.32051691e-03,
          -9.62360937e-04, -1.65875128e-04, -3.02335829e-03,
          1.64055824e-03, 3.69361555e-03, 4.71894350e-03, 1.29261268e-02,
          -1.57565512e-02, -1.25357769e-02, -2.15867971e-04,
          2.01787846e-03, 4.41880344e-04, -2.54202657e-03,
          2.60313973e-03, -1.43155092e-04, 1.51938405e-02,
          1.08225094e-02, -2.87499302e-03, 9.28619120e-04,
          4.99571208e-04, -2.82257725e-03, -1.16666290e-03,
          3.98526713e-03, -4.84632910e-04, -4.23116749e-03,
          -1.63817666e-02, -7.79788801e-03, -4.32853354e-03,
          4.97927750e-03, 2.70318496e-03, 2.05576792e-03,
          -2.03346321e-03, -1.29113020e-03, -7.11930823e-03,
          -1.47572020e-02, 7.47066515e-04, 4.47872700e-03,
          -3.24414432e-04, 3.61965061e-03, -3.00911325e-03,
          -4.90058633e-03, -1.28401816e-03, -5.02028689e-03,
          -8.25946406e-03, 8.35396524e-04, 2.64502736e-03,
          4.69039893e-03, 3.25979054e-04, -5.84368734e-03,
          9.37260874e-03, -2.62355455e-03, -1.14007294e-02,
          -1.40172401e-02, -2.93170626e-04, 5.85513702e-03,
          1.14140846e-02, 1.52438553e-02, 1.53750284e-02, 1.10064661e-02,
          -3.35232564e-03, -7.56666809e-03, -7.60820275e-03,
          -3.71761364e-03, 8.67140107e-03, 1.25610633e-02,
          1.62348691e-02, 1.41428793e-02, -6.04746025e-03,
          -1.14575913e-03, -3.34801967e-03, -7.56466389e-03,
          2.07525445e-03, -6.47851499e-03, 3.35303927e-03,
          -1.98301184e-03, -7.90850352e-03, -3.97632923e-03,
          2.36105011e-03, -1.42821216e-03, 7.18234386e-03,
          1.05915545e-02, 1.32442906e-03, 4.11643041e-03,
          -1.56107180e-05, -1.23299577e-03, 5.63903013e-03,
          -5.42434631e-03, -7.53651513e-03, -8.49653222e-03,
          -1.92285480e-03, 1.55789661e-03, 7.61436298e-03,
          7.01840548e-03, 6.72610849e-03, 1.15511343e-02,
          -4.55273868e-04, 2.87225679e-03, 1.19992020e-02,
          1.02863442e-02, 5.61090047e-03, 8.16962589e-03, 6.12553116e-03,
          9.72280465e-03, -9.97742545e-03, -3.71756242e-03,
          -2.80114170e-03, 1.97492098e-03, 8.52989964e-03,
          1.68347440e-03, -3.48818321e-05, -2.10775086e-03,
          -6.64022705e-03, -1.30939344e-02, -1.10959318e-02,
          -1.23486975e-02, 4.20444971e-03, 1.30200880e-02,
          7.56804366e-03, 4.24771815e-06, -2.87115714e-03,
          -1.18842945e-02, 9.99486423e-04, -7.32319243e-03,
          8.45324900e-03, 5.74442325e-03, 9.94782802e-03,
          -1.83034351e-03, 2.90910015e-04, 2.09259661e-03,
          8.26860254e-04, -1.24858273e-02, -1.33205634e-02,
          -2.69851857e-03, 1.22705968e-02, 1.51515678e-02,
          3.91421234e-03, -3.43286153e-03, -1.21281086e-03,
          -9.08938143e-03, -3.15201283e-03, -7.05730449e-03,
          -5.00848284e-03, 1.13636320e-02, 1.60085578e-02,
          -1.10246707e-03, -1.23770558e-04, -1.67383172e-03,
          -6.28116820e-03, -8.04802310e-03, 2.39633606e-03,
          1.20008748e-03, -5.03675872e-03, -4.70777741e-03,
          -1.02308476e-02, -2.92209396e-03, -6.33923011e-03,
          -1.03561925e-02, -3.03046359e-03, -6.08705275e-04,
          2.97852675e-03, 6.18507899e-03, 1.79043114e-02, 1.16037820e-02,
          4.73000575e-03, 3.01779434e-03, -6.70005428e-03,
          -1.22412574e-02, 8.23391788e-03, 1.02623971e-02,
          3.70302284e-03, -7.23849423e-03, -9.31722764e-03,
          -8.71362351e-03, -1.08044799e-02, -1.97148677e-02,
          -9.64464212e-04, 1.05800165e-04, -7.57846632e-04,
          -2.62762740e-04, -8.74895323e-03, -7.58398615e-04,
          3.60958790e-03, 2.16910476e-03, 2.00361526e-03, 5.39512699e-03,
          -6.65073562e-03, -9.19859763e-03, -2.58889887e-03,
          -8.31054244e-03, 4.34425240e-03, 6.45146519e-03,
          8.50138813e-03, 9.61562898e-03, -9.72789526e-03,
          1.20625366e-04, -4.88384394e-04, 2.94720032e-03,
          -6.72357017e-03, -1.52524631e-03, 1.02007340e-04,
          -7.16007082e-03, -9.10083856e-03, -5.74587937e-03,
          -5.19195292e-03, -4.98190615e-03, -5.43000316e-03,
          -6.12519728e-03, -1.58034742e-03, 4.51216893e-03,
          1.12406409e-03, 2.18153605e-03, 1.60528545e-03,
          -6.50769705e-03, -8.13598372e-03, -5.61895594e-03,
          -9.48973373e-03, -1.56653207e-03, -7.46926584e-04,
          1.66022463e-03, 9.98800807e-03, 1.79512464e-02, 2.97776912e-03,
          1.16709666e-03, 2.07938300e-03, 1.22701563e-03, 1.50606118e-03,
          2.68742908e-03, 5.92751708e-03, 1.84305776e-02,
          -3.71608138e-03, -1.24248052e-02, -8.63064826e-03,
          -6.39481097e-03, -9.88289993e-03, -6.64165523e-03,
          -5.24188112e-03, -2.63642147e-03, 6.08994206e-03,
          8.10887665e-03, 6.08747266e-03, 2.92098266e-04,
          -5.42709325e-03, -2.76393373e-03, -2.13805892e-04,
          -2.87496019e-03, 1.25555007e-03, 1.01058763e-02,
          1.38863306e-02, 5.67186449e-04, 6.28980761e-03, 3.38143250e-03,
          -1.19299663e-03, -3.75765469e-03, 2.80609878e-04,
          6.73092948e-03, 1.03331413e-02, -3.90595687e-03,
          -8.01918749e-03, 6.68349024e-03, 1.26335006e-02,
          2.19484954e-03, -1.55872526e-03, -5.26197487e-03,
          -7.52096414e-04, -6.75641512e-03, 8.62413272e-03,
          4.97048954e-03, 6.35522534e-04, -2.48082820e-03,
          -8.77432432e-03, -2.83044111e-03, 7.03966653e-04,
          1.86980411e-03, 6.26807800e-03, -4.81214956e-04,
          -4.18415148e-04, 8.99676606e-03, 3.34364595e-03,
          -7.03206146e-03, -2.16356991e-03, -1.01703487e-03,
          1.58015988e-03, -1.13153023e-04, -7.67029007e-04,
          -1.88842765e-03, -1.52512139e-03, -3.42199532e-03,
          1.38065815e-02, 6.31289417e-03, 6.21116767e-03, 1.26359779e-02,
          -1.34045666e-03, -5.55474497e-03, -8.75932071e-03,
          -7.17439037e-03, -6.66305888e-03, -1.32858502e-02,
          -1.03296535e-02, -9.86643881e-03, 1.40308659e-03,
          -4.85981861e-03, 2.90778233e-03, 4.18553449e-04,
          7.06754206e-03, -2.95709982e-03, 6.94675976e-03,
          1.07703926e-02, 9.15592816e-03, 1.62888020e-02, 5.31534757e-03,
          4.53361357e-03, 2.62661092e-03, 3.94184375e-03, 7.29307672e-03,
          6.68337708e-03, 2.53397599e-03, 5.59959561e-03, 1.44077316e-02,
          7.39041111e-03, -7.57276127e-03, -7.77000282e-03,
          -1.21440338e-02, -7.99085107e-03, -1.03785107e-02,
          -4.47493792e-03, -1.32433546e-03, -2.78993486e-03,
          -4.10704780e-03, -1.20652597e-02, -3.64896469e-03,
          -7.15652667e-03, -1.13127511e-02, -1.28369574e-02,
          -5.56016201e-03, -1.78407691e-03, -3.85138113e-03,
          -3.56348604e-03, 8.83298554e-03, 7.11504195e-04,
          8.20523407e-03, 5.57931699e-03, 2.66071595e-03,
          -1.81737193e-03, 6.77919621e-03, 3.10840597e-03,
          1.32416412e-02, 4.70656157e-03, 1.11144390e-02, 8.27684253e-03,
          6.67216256e-03, -7.17063993e-03, -1.87403266e-03,
          -1.72404898e-03, -3.43091227e-03, 2.54744082e-03,
          -1.45748984e-02, 5.75887086e-03, -3.59118753e-03,
          -6.05248194e-03, -1.04020694e-02, -6.21624710e-03,
          -4.43674577e-03, -7.44509324e-03, -7.72394706e-03,
          -1.29252523e-02, 4.60051978e-03, 3.07331793e-03,
          -5.44253131e-03, -6.51182747e-03, -3.00739612e-03,
          -4.67837462e-03, -7.06547080e-03, -6.57524541e-03,
          -8.41772766e-04, 1.36280041e-02, 7.44720083e-03,
          3.15659679e-03, -5.86291030e-03, -3.90575547e-03,
          -5.20535745e-03, -5.10097295e-03, -8.18223786e-03,
          -3.27306124e-03, -1.51042559e-03, 3.94452130e-03,
          -5.28401090e-03, -2.17568805e-03, -1.06223300e-03,
          -1.20273675e-03, -1.05691305e-03, -3.11255152e-03,
          -6.71844836e-03, 5.54883713e-03, 3.54581745e-03,
          -5.85741317e-03, -1.35172792e-02, -1.62263983e-03,
          -1.73580390e-03, -4.90866136e-03, -1.13467742e-02,
          3.55342199e-05, 2.27593025e-03, 3.54358344e-03,
          -8.01700633e-03, -9.72360093e-03, -3.24862078e-03,
          -6.31628151e-04, 2.19872571e-03, -4.61213710e-03,
          4.25674859e-03, 1.32028514e-03, 5.28765842e-03, 3.99173750e-03,
          -2.50748498e-03, 8.18947155e-04, -1.03319013e-04,
          3.01515887e-04, 4.93872503e-04, 6.67739566e-03, 4.30509727e-03,
          3.21054924e-03, 6.63724914e-03, 1.41517783e-03,
          -2.52281548e-04, -1.08467950e-03, 1.98924169e-03,
          7.90652446e-03 ]
   decision_functions:
      -
         sv_count: 1
         rho: 8.9193077583980640e-01
         alpha: [ 1. ]
