%YAML:1.0
opencv_ml_svm:
   svmType: EPS_SVR
   kernel:
      type: LINEAR
   C: 1.0000000000000000e-02
   p: 1.0000000000000001e-01
   term_criteria: { iterations:100 }
   var_count: 576
   sv_total: 1
   support_vectors:
      - [ 7.41721422e-04, -4.28618025e-03, -1.26715468e-05,
          7.04813065e-05, 1.07968915e-02, 1.34290673e-03, 4.02155146e-03,
          4.06051567e-03, 2.12158659e-03, -4.36726771e-03,
          -3.21805407e-03, 1.22452131e-03, 9.60536953e-03,
          1.77152641e-02, 2.64439615e-03, 1.06410414e-03,
          -8.39874323e-04, -1.63934473e-03, -2.11184146e-03,
          8.25645111e-04, 5.04999841e-03, -5.49896853e-04,
          7.27268588e-03, 1.22684462e-03, 3.79628647e-04, 7.15604518e-04,
          8.10851750e-04, -7.63562322e-03, -6.66401442e-03,
          -3.09257745e-03, 7.62303127e-04, 6.97358558e-03,
          1.47034135e-03, -2.04493481e-04, -4.18507680e-03,
          -2.58717453e-03, -7.73979351e-03, -5.98417642e-03,
          7.93755054e-04, 1.22679751e-02, 1.42258378e-02, 2.69848388e-04,
          1.39298325e-03, 1.14352733e-03, -5.60826715e-03,
          -7.11223390e-03, -4.99816518e-03, -1.08154083e-03,
          5.08753862e-03, 1.03514288e-02, -2.90407799e-03,
          1.67243695e-03, 5.84860658e-03, -4.20283555e-04,
          -2.32070498e-03, -3.89497378e-03, -2.18839245e-03,
          -2.05536257e-03, 1.32818043e-03, 1.26951069e-04,
          -6.63891609e-04, -3.25401826e-03, 1.24915934e-03,
          2.85079773e-03, -1.94407359e-04, 8.18979274e-03,
          -4.39329538e-03, -3.09634232e-03, -6.86320802e-03,
          -2.28374382e-03, -7.34232657e-04, 6.30791020e-03,
          -4.46196087e-03, -2.80640181e-03, 1.11001590e-03,
          2.87190615e-03, 1.08435079e-02, 2.22591893e-03, 3.45149776e-03,
          3.80023383e-03, -6.05198613e-04, -1.04277558e-03,
          -2.60467152e-03, -5.17228758e-03, -4.88372846e-03,
          -5.26927644e-04, 2.85975722e-04, -1.46184955e-03,
          7.42510601e-04, 4.39279946e-04, 4.42931522e-03,
          -1.08183734e-03, 4.66086436e-03, -6.01716386e-03,
          4.60063748e-04, -4.05108556e-03, -6.00329367e-04,
          -1.52341963e-03, 6.08476112e-03, 5.20058535e-03,
          2.70041311e-03, 2.02181097e-03, -1.01378569e-02,
          -3.26635200e-03, -9.04332008e-03, -1.27309700e-04,
          -1.60635740e-03, 6.12370577e-03, 1.12956297e-03,
          -2.82822386e-03, -6.66553015e-03, -1.43741153e-03,
          -8.00815690e-03, -8.42721565e-05, -7.80136266e-04,
          1.44324836e-03, 4.28724394e-04, 6.63990900e-03, 8.90984607e-04,
          -4.55689005e-05, 1.64775327e-02, 5.22418879e-03,
          3.44310678e-03, 1.22151396e-03, -1.54727872e-03,
          3.41572938e-03, 7.59376399e-03, -2.62405752e-04,
          -6.43598335e-03, -1.26458239e-02, -1.48736686e-02,
          -9.24424455e-03, -1.03462709e-03, -2.26948387e-03,
          6.21648738e-03, 1.75798740e-02, 3.51716951e-03, 3.92536540e-03,
          8.56266823e-03, -3.99019010e-03, -8.78012157e-04,
          4.23815288e-03, 8.60178960e-04, 1.47811500e-02, 4.21709010e-05,
          4.81579686e-03, 7.97751360e-03, 3.47283971e-03, 3.46626714e-03,
          2.19534035e-03, -4.74822504e-04, -2.61775946e-04,
          1.82766188e-03, -3.22457083e-04, -9.44508356e-04,
          3.49294208e-03, 1.58795610e-03, -2.88956007e-03,
          1.79860785e-04, -1.96653651e-03, -2.51204940e-03,
          1.58893107e-03, -1.88185391e-03, 7.44760782e-03,
          1.34865241e-02, 7.47329416e-03, -4.32010228e-03,
          -2.98249535e-03, -3.27787106e-03, -3.61879636e-03,
          -1.30041176e-03, -4.07442404e-03, -9.34295531e-04,
          1.24771809e-02, 5.31460717e-03, -1.07154204e-02,
          -9.04741604e-03, -9.63833183e-03, -7.68379867e-03,
          -2.41914974e-03, 7.82822538e-03, 4.27965401e-03,
          1.34553676e-02, 8.19445704e-04, -5.26695093e-03,
          -7.99307832e-04, 1.94736975e-04, -3.34224687e-03,
          7.47913262e-03, 1.37490332e-02, 2.55678338e-03, 7.16509670e-03,
          -8.85669328e-03, -1.12891793e-02, -6.94084633e-03,
          -3.79076274e-03, 4.68067810e-05, 1.13062691e-02,
          -1.87490089e-03, 4.45857830e-03, 9.61219240e-03,
          1.23117596e-03, -8.38357396e-03, -9.43187438e-03,
          -7.84582086e-03, -1.17507828e-02, -4.26127203e-03,
          -1.75040099e-04, 4.93389089e-03, 2.51959334e-03,
          -1.13045415e-02, -9.74459760e-03, -1.26968855e-02,
          -6.23040879e-03, -1.07742436e-02, -1.04878040e-03,
          1.11025590e-02, -6.27933419e-04, 3.47838271e-03,
          -1.03854192e-02, -1.16862729e-02, -7.96455145e-03,
          -5.46078617e-03, -7.08424835e-04, 1.19001977e-02,
          1.16838515e-02, 3.26615269e-03, 7.68788904e-03,
          -1.62866395e-02, -1.31593347e-02, -9.06863902e-03,
          -3.64724500e-03, -3.26614059e-03, 9.78480652e-03,
          2.11126986e-03, 1.07532805e-02, 1.57619193e-02,
          -1.19884200e-02, -1.20295435e-02, -1.20496918e-02,
          -6.58936938e-03, -6.50493242e-03, -2.81750079e-04,
          6.89035654e-03, 1.80400498e-02, 1.52337598e-02,
          -1.09241335e-02, -1.66985728e-02, -1.28318481e-02,
          -9.87284072e-03, -6.11597672e-03, 6.64514815e-03,
          8.16366635e-03, 5.69151668e-03, 4.65534022e-03,
          -1.71750877e-02, -1.98972747e-02, -8.64789356e-03,
          -1.90896727e-03, -1.05721538e-03, 8.75327643e-03,
          1.86468102e-02, 1.21166538e-02, 1.88950151e-02,
          -2.70671863e-03, -1.25204548e-02, -1.20636250e-03,
          4.83422261e-03, 6.61669672e-03, 1.98953319e-02, 4.20516590e-03,
          1.64904855e-02, 9.25613102e-03, -2.00089365e-02,
          -2.48999912e-02, -1.00899991e-02, -6.37418218e-03,
          -3.63425375e-03, 4.76051727e-03, 1.72003005e-02,
          1.77157968e-02, 1.15639428e-02, -1.29590863e-02,
          -2.40581520e-02, -2.64299591e-03, 3.80275608e-03,
          5.44870691e-03, 1.72664057e-02, -2.56494706e-04,
          7.66852079e-03, 1.71677098e-02, 6.01543998e-03,
          -1.26364343e-02, -3.32612894e-03, -2.57274904e-03,
          -1.71812624e-03, 4.66210098e-04, 2.89865374e-03,
          1.26717996e-05, 6.75576041e-03, 3.75973689e-03,
          -9.85489227e-03, -7.17243459e-03, -5.37410099e-03,
          -3.56375868e-03, 4.78971424e-03, 3.01662250e-03,
          2.35087774e-03, 9.66240745e-03, 6.00598473e-03,
          -5.01111010e-03, -8.33581854e-03, -4.08320408e-03,
          -1.15049741e-04, 8.23004730e-03, 4.31000488e-03,
          -3.89863807e-03, -2.16959487e-03, -2.52048206e-03,
          -2.52583856e-03, -8.52274615e-03, -2.52946658e-04,
          -9.02109896e-04, 9.02517047e-03, 1.71335135e-03,
          -2.05072458e-03, -6.84077619e-04, -6.83666300e-03,
          -3.99477454e-03, -5.79888560e-03, -5.80617087e-03,
          -6.85761916e-03, 1.57263639e-04, -3.01434688e-04,
          8.43799487e-03, 7.60200014e-03, -8.30557290e-03,
          -2.37577478e-03, -5.44856489e-03, -2.42092623e-03,
          -6.76097069e-03, -4.23167599e-03, 8.00252706e-03,
          -4.07198304e-03, -2.47765169e-03, -5.25660440e-03,
          4.96227900e-03, -3.26798577e-03, -1.46639091e-03,
          -5.90119278e-04, 8.43580440e-03, 8.69655050e-03,
          7.86775257e-03, 4.91970126e-03, 3.81183298e-03, 1.20841591e-02,
          1.03453011e-03, -2.66323704e-03, -3.29778355e-04,
          9.08471085e-03, -1.60015305e-03, 1.16794677e-02,
          9.71349515e-03, -8.28553271e-03, -7.58850621e-03,
          -7.82692060e-03, -3.99356661e-03, -7.86860194e-03,
          -8.94055143e-03, -3.39379185e-03, 1.51142860e-02,
          1.33925341e-02, -1.16492817e-02, -1.31673692e-02,
          -1.04905590e-02, -6.54258393e-03, -8.56280886e-03,
          -7.58186774e-03, 8.26234464e-04, 1.52681051e-02,
          1.03574591e-02, -2.93623045e-04, 3.37820430e-03,
          -1.08319160e-03, -3.60374711e-03, -6.48677582e-03,
          -1.78153533e-03, 4.82264999e-03, 6.84364932e-03,
          9.49207228e-03, -1.36035995e-03, 8.25865020e-04,
          -6.07421808e-03, -3.17078899e-03, -6.09053718e-03,
          3.11035779e-03, 1.59036554e-03, 1.47411693e-02, 7.82083813e-03,
          -9.55680758e-03, -1.30901337e-02, -6.47304440e-03,
          -3.76514299e-03, -3.94136226e-03, 1.88435696e-03,
          1.18393470e-02, 1.71871297e-02, 8.93329177e-03,
          -1.34468190e-02, -1.13495756e-02, 2.88854470e-03,
          6.89733773e-03, 4.93328273e-03, 1.53659265e-02,
          -7.47346610e-04, 4.64543421e-03, 6.38010073e-03,
          -4.83071478e-03, -1.05890853e-03, -5.79557568e-03,
          -2.11098813e-03, -2.96854996e-03, -1.28496462e-03,
          2.78029032e-03, 1.90422405e-03, 1.79536626e-04,
          -5.97069040e-03, -3.84562329e-04, 1.29509636e-03,
          1.58944773e-03, 1.12428865e-03, 4.72048717e-03, 1.86912454e-04,
          -4.13631136e-03, -1.47188213e-04, 1.11938571e-03,
          -2.72834534e-03, -6.59530377e-03, -5.62565727e-03,
          -3.74217099e-03, 5.49291028e-03, -1.51735521e-03,
          -1.08331852e-02, -1.15892226e-02, -8.69219564e-03,
          -6.52643247e-03, -6.90507283e-03, -1.67065090e-03,
          -2.42361054e-03, 2.78887316e-03, 2.51914337e-02,
          6.00834005e-03, -5.55117568e-03, 3.98137420e-03,
          4.27200133e-03, 3.92807322e-03, 6.98869862e-03, 1.15736146e-02,
          2.53879391e-02, 1.52150309e-02, -4.08335496e-03,
          -8.45368579e-03, -3.77962505e-03, -1.10317655e-02,
          1.03011460e-03, 4.58982866e-03, 8.98769218e-03, 1.67175513e-02,
          2.92879227e-03, -5.34355221e-03, -4.39118361e-03,
          -3.94284585e-03, -2.57613882e-03, -2.54287734e-03,
          4.61208401e-04, -8.64777685e-05, 4.13464475e-03,
          5.36556635e-03, 2.72575952e-03, 3.87265987e-04, 1.33781030e-03,
          3.58052901e-03, 2.33229821e-05, -1.82685821e-04,
          1.02192780e-03, 1.05108216e-03, 3.05745704e-03,
          -1.48203701e-03, -6.01466652e-03, 4.46964661e-03,
          -6.12563360e-03, 4.89011873e-03, 5.97506901e-03,
          9.42120515e-03, 6.54314877e-03, 1.65896351e-03, 1.71094912e-03,
          -3.63024254e-03, 6.23668777e-03, 2.82532512e-03,
          7.38303410e-03, 7.31574139e-03, 8.74508265e-03,
          -2.06250767e-03, 6.58584945e-03, 2.25319504e-03,
          -2.85765599e-03, 1.21484220e-03, 5.93340630e-03,
          4.67481976e-03, -7.60023308e-04, 1.38850987e-03,
          5.20522986e-03, 8.70849565e-03, 4.88805352e-03, 2.85907590e-04,
          3.10244993e-03, 5.02741663e-03, 5.01723262e-04,
          -1.72466622e-03, -9.45624372e-04, 8.40925053e-03,
          3.23866308e-03, 3.78031051e-04, -2.89887958e-03,
          2.90038832e-03, 5.25397016e-03, 6.31341944e-03, 4.26599802e-03,
          5.00248093e-03, 2.60904757e-03, 2.32027075e-03,
          -2.53489590e-03, -6.19668514e-03, 2.21649272e-04,
          1.86102849e-03, 8.38239386e-04, -1.65223971e-03,
          -2.18322431e-03, -8.29077035e-04, 4.82250797e-03,
          -1.40735775e-03, -1.16090872e-03, 7.89182540e-03,
          1.11696944e-02, -2.37233611e-03, -4.80386801e-03,
          -3.93084949e-03, 1.36387814e-03, 2.81202607e-03,
          -2.19795713e-03, 2.21994822e-04, 4.27367026e-03,
          9.41905566e-03, 3.20007629e-03, -2.98438710e-03,
          -1.21363823e-03, 3.02432477e-03, 3.06436652e-03,
          -4.36812593e-03, -3.21923499e-03, 2.53070961e-03,
          7.76749523e-03, -4.83915355e-04, -2.79128901e-03,
          -5.40675456e-03, -2.37611216e-03, 4.28085867e-03,
          3.52829782e-04, 5.35463402e-03, 3.07844812e-03, 6.61376165e-03,
          1.44116441e-03, -1.70647970e-03, -1.46976591e-03,
          3.39170743e-04 ]
   decision_functions:
      -
         sv_count: 1
         rho: 8.5826979054070585e-01
         alpha: [ 1. ]
